<?xml version="1.0"?>
<opencv_storage>
<cascade>
  <stageType>BOOST</stageType>
  <featureType>HAAR</featureType>
  <height>24</height>
  <width>24</width>
  <stageParams>
    <boostType>GAB</boostType>
    <minHitRate>9.9500000476837158e-01</minHitRate>
    <maxFalseAlarm>5.0000000000000000e-01</maxFalseAlarm>
    <weightTrimRate>9.4999998807907104e-01</weightTrimRate>
    <maxDepth>1</maxDepth>
    <maxWeakCount>100</maxWeakCount></stageParams>
  <featureParams>
    <maxCatCount>0</maxCatCount>
    <featSize>1</featSize>
    <mode>BASIC</mode></featureParams>
  <stageNum>9</stageNum>
  <stages>
    <!-- stage 0 -->
    <_>
      <maxWeakCount>3</maxWeakCount>
      <stageThreshold>-1.2891857624053955e+00</stageThreshold>
      <weakClassifiers>
        <_>
          <internalNodes>
            0 -1 14 1.1484068632125854e-01</internalNodes>
          <leafValues>
            -9.8212510347366333e-01 7.6470589637756348e-01</leafValues></_>
        <_>
          <internalNodes>
            0 -1 9 -3.6148916929960251e-02</internalNodes>
          <leafValues>
            7.1299856901168823e-01 -9.3235099315643311e-01</leafValues></_>
        <_>
          <internalNodes>
            0 -1 8 -6.7297071218490601e-02</internalNodes>
          <leafValues>
            6.2529033422470093e-01 -9.4724935293197632e-01</leafValues></_></weakClassifiers></_>
    <!-- stage 1 -->
    <_>
      <maxWeakCount>4</maxWeakCount>
      <stageThreshold>-2.1382186412811279e+00</stageThreshold>
      <weakClassifiers>
        <_>
          <internalNodes>
            0 -1 12 1.0277279466390610e-01</internalNodes>
          <leafValues>
            -9.7235929965972900e-01 8.1818181276321411e-01</leafValues></_>
        <_>
          <internalNodes>
            0 -1 27 -5.9982817620038986e-02</internalNodes>
          <leafValues>
            6.8935406208038330e-01 -9.1460025310516357e-01</leafValues></_>
        <_>
          <internalNodes>
            0 -1 23 -3.6345168948173523e-02</internalNodes>
          <leafValues>
            5.6131374835968018e-01 -8.3583569526672363e-01</leafValues></_>
        <_>
          <internalNodes>
            0 -1 6 7.3938027024269104e-02</internalNodes>
          <leafValues>
            -9.1202092170715332e-01 5.8457672595977783e-01</leafValues></_></weakClassifiers></_>
    <!-- stage 2 -->
    <_>
      <maxWeakCount>4</maxWeakCount>
      <stageThreshold>-1.9328714609146118e+00</stageThreshold>
      <weakClassifiers>
        <_>
          <internalNodes>
            0 -1 1 -3.1166896224021912e-01</internalNodes>
          <leafValues>
            7.1428573131561279e-01 -9.7623759508132935e-01</leafValues></_>
        <_>
          <internalNodes>
            0 -1 18 1.4385779201984406e-01</internalNodes>
          <leafValues>
            -9.2839884757995605e-01 4.3577322363853455e-01</leafValues></_>
        <_>
          <internalNodes>
            0 -1 10 -1.4866885542869568e-01</internalNodes>
          <leafValues>
            9.0633809566497803e-01 -7.7699118852615356e-01</leafValues></_>
        <_>
          <internalNodes>
            0 -1 29 2.6793830096721649e-02</internalNodes>
          <leafValues>
            -7.9020941257476807e-01 7.4875617027282715e-01</leafValues></_></weakClassifiers></_>
    <!-- stage 3 -->
    <_>
      <maxWeakCount>4</maxWeakCount>
      <stageThreshold>-1.8423857688903809e+00</stageThreshold>
      <weakClassifiers>
        <_>
          <internalNodes>
            0 -1 15 -2.5275653600692749e-01</internalNodes>
          <leafValues>
            5.0000000000000000e-01 -9.8207169771194458e-01</leafValues></_>
        <_>
          <internalNodes>
            0 -1 19 1.9443747401237488e-01</internalNodes>
          <leafValues>
            -9.2244744300842285e-01 5.7340914011001587e-01</leafValues></_>
        <_>
          <internalNodes>
            0 -1 28 -1.9156001508235931e-01</internalNodes>
          <leafValues>
            9.0033632516860962e-01 -7.7466899156570435e-01</leafValues></_>
        <_>
          <internalNodes>
            0 -1 26 8.8826805353164673e-02</internalNodes>
          <leafValues>
            -6.0648101568222046e-01 8.3680242300033569e-01</leafValues></_></weakClassifiers></_>
    <!-- stage 4 -->
    <_>
      <maxWeakCount>4</maxWeakCount>
      <stageThreshold>-2.0313487052917480e+00</stageThreshold>
      <weakClassifiers>
        <_>
          <internalNodes>
            0 -1 5 -6.8529218435287476e-02</internalNodes>
          <leafValues>
            4.2857143282890320e-01 -9.7227722406387329e-01</leafValues></_>
        <_>
          <internalNodes>
            0 -1 4 5.1853746175765991e-02</internalNodes>
          <leafValues>
            -8.7718975543975830e-01 9.5994681119918823e-01</leafValues></_>
        <_>
          <internalNodes>
            0 -1 2 -4.5210421085357666e-02</internalNodes>
          <leafValues>
            6.1251682043075562e-01 -8.3257794380187988e-01</leafValues></_>
        <_>
          <internalNodes>
            0 -1 20 2.5438051670789719e-02</internalNodes>
          <leafValues>
            -6.6501450538635254e-01 6.5069621801376343e-01</leafValues></_></weakClassifiers></_>
    <!-- stage 5 -->
    <_>
      <maxWeakCount>4</maxWeakCount>
      <stageThreshold>-2.1566309928894043e+00</stageThreshold>
      <weakClassifiers>
        <_>
          <internalNodes>
            0 -1 3 -2.7207890152931213e-01</internalNodes>
          <leafValues>
            1. -9.6270853281021118e-01</leafValues></_>
        <_>
          <internalNodes>
            0 -1 21 -1.2759526260197163e-02</internalNodes>
          <leafValues>
            3.9135777950286865e-01 -8.6831527948379517e-01</leafValues></_>
        <_>
          <internalNodes>
            0 -1 13 -2.0055025815963745e-02</internalNodes>
          <leafValues>
            2.9358887672424316e-01 -8.5038655996322632e-01</leafValues></_>
        <_>
          <internalNodes>
            0 -1 30 -2.2531207650899887e-02</internalNodes>
          <leafValues>
            6.8957877159118652e-01 -6.1919605731964111e-01</leafValues></_></weakClassifiers></_>
    <!-- stage 6 -->
    <_>
      <maxWeakCount>4</maxWeakCount>
      <stageThreshold>-2.3180983066558838e+00</stageThreshold>
      <weakClassifiers>
        <_>
          <internalNodes>
            0 -1 0 -1.0467708110809326e-01</internalNodes>
          <leafValues>
            1. -9.6463656425476074e-01</leafValues></_>
        <_>
          <internalNodes>
            0 -1 11 9.0840429067611694e-02</internalNodes>
          <leafValues>
            -8.9347779750823975e-01 5.3252846002578735e-01</leafValues></_>
        <_>
          <internalNodes>
            0 -1 22 1.1080065742135048e-02</internalNodes>
          <leafValues>
            -7.6182574033737183e-01 6.0320806503295898e-01</leafValues></_>
        <_>
          <internalNodes>
            0 -1 17 3.5128192394040525e-05</internalNodes>
          <leafValues>
            -1. 3.0184164643287659e-01</leafValues></_></weakClassifiers></_>
    <!-- stage 7 -->
    <_>
      <maxWeakCount>3</maxWeakCount>
      <stageThreshold>-1.5502247810363770e+00</stageThreshold>
      <weakClassifiers>
        <_>
          <internalNodes>
            0 -1 31 -4.0966764092445374e-02</internalNodes>
          <leafValues>
            7.1428573131561279e-01 -9.6460175514221191e-01</leafValues></_>
        <_>
          <internalNodes>
            0 -1 7 -6.1661154031753540e-02</internalNodes>
          <leafValues>
            6.7548370361328125e-01 -8.6881101131439209e-01</leafValues></_>
        <_>
          <internalNodes>
            0 -1 17 3.5350417601875961e-04</internalNodes>
          <leafValues>
            2.8318804502487183e-01 -9.8167502880096436e-01</leafValues></_></weakClassifiers></_>
    <!-- stage 8 -->
    <_>
      <maxWeakCount>4</maxWeakCount>
      <stageThreshold>-2.4238209724426270e+00</stageThreshold>
      <weakClassifiers>
        <_>
          <internalNodes>
            0 -1 25 -4.1382491588592529e-02</internalNodes>
          <leafValues>
            1. -9.6270853281021118e-01</leafValues></_>
        <_>
          <internalNodes>
            0 -1 24 -2.8329670429229736e-02</internalNodes>
          <leafValues>
            5.7381284236907959e-01 -8.4607422351837158e-01</leafValues></_>
        <_>
          <internalNodes>
            0 -1 16 2.4863749742507935e-02</internalNodes>
          <leafValues>
            -8.7683486938476563e-01 3.4746953845024109e-01</leafValues></_>
        <_>
          <internalNodes>
            0 -1 17 3.5038683563470840e-05</internalNodes>
          <leafValues>
            -1. 2.6179662346839905e-01</leafValues></_></weakClassifiers></_></stages>
  <features>
    <_>
      <rects>
        <_>
          0 1 16 4 -1.</_>
        <_>
          0 3 16 2 2.</_></rects>
      <tilted>0</tilted></_>
    <_>
      <rects>
        <_>
          0 1 18 12 -1.</_>
        <_>
          0 5 18 4 3.</_></rects>
      <tilted>0</tilted></_>
    <_>
      <rects>
        <_>
          0 2 6 17 -1.</_>
        <_>
          2 2 2 17 3.</_></rects>
      <tilted>0</tilted></_>
    <_>
      <rects>
        <_>
          0 2 21 8 -1.</_>
        <_>
          0 6 21 4 2.</_></rects>
      <tilted>0</tilted></_>
    <_>
      <rects>
        <_>
          0 9 4 11 -1.</_>
        <_>
          2 9 2 11 2.</_></rects>
      <tilted>0</tilted></_>
    <_>
      <rects>
        <_>
          0 9 6 11 -1.</_>
        <_>
          2 9 2 11 3.</_></rects>
      <tilted>0</tilted></_>
    <_>
      <rects>
        <_>
          0 11 16 12 -1.</_>
        <_>
          0 15 16 4 3.</_></rects>
      <tilted>0</tilted></_>
    <_>
      <rects>
        <_>
          0 12 6 7 -1.</_>
        <_>
          2 12 2 7 3.</_></rects>
      <tilted>0</tilted></_>
    <_>
      <rects>
        <_>
          0 14 14 10 -1.</_>
        <_>
          0 14 7 5 2.</_>
        <_>
          7 19 7 5 2.</_></rects>
      <tilted>0</tilted></_>
    <_>
      <rects>
        <_>
          1 0 3 8 -1.</_>
        <_>
          1 4 3 4 2.</_></rects>
      <tilted>0</tilted></_>
    <_>
      <rects>
        <_>
          1 4 20 8 -1.</_>
        <_>
          1 8 20 4 2.</_></rects>
      <tilted>0</tilted></_>
    <_>
      <rects>
        <_>
          2 9 8 8 -1.</_>
        <_>
          6 9 4 8 2.</_></rects>
      <tilted>0</tilted></_>
    <_>
      <rects>
        <_>
          2 11 15 4 -1.</_>
        <_>
          7 11 5 4 3.</_></rects>
      <tilted>0</tilted></_>
    <_>
      <rects>
        <_>
          2 22 10 2 -1.</_>
        <_>
          7 22 5 2 2.</_></rects>
      <tilted>0</tilted></_>
    <_>
      <rects>
        <_>
          3 9 18 6 -1.</_>
        <_>
          9 9 6 6 3.</_></rects>
      <tilted>0</tilted></_>
    <_>
      <rects>
        <_>
          4 0 15 15 -1.</_>
        <_>
          4 5 15 5 3.</_></rects>
      <tilted>0</tilted></_>
    <_>
      <rects>
        <_>
          5 0 6 16 -1.</_>
        <_>
          8 0 3 16 2.</_></rects>
      <tilted>0</tilted></_>
    <_>
      <rects>
        <_>
          5 1 4 1 -1.</_>
        <_>
          7 1 2 1 2.</_></rects>
      <tilted>0</tilted></_>
    <_>
      <rects>
        <_>
          5 4 8 18 -1.</_>
        <_>
          5 10 8 6 3.</_></rects>
      <tilted>0</tilted></_>
    <_>
      <rects>
        <_>
          5 4 9 18 -1.</_>
        <_>
          5 10 9 6 3.</_></rects>
      <tilted>0</tilted></_>
    <_>
      <rects>
        <_>
          6 6 10 4 -1.</_>
        <_>
          6 8 10 2 2.</_></rects>
      <tilted>0</tilted></_>
    <_>
      <rects>
        <_>
          6 18 4 3 -1.</_>
        <_>
          6 19 4 1 3.</_></rects>
      <tilted>0</tilted></_>
    <_>
      <rects>
        <_>
          6 19 5 4 -1.</_>
        <_>
          6 21 5 2 2.</_></rects>
      <tilted>0</tilted></_>
    <_>
      <rects>
        <_>
          7 9 10 7 -1.</_>
        <_>
          12 9 5 7 2.</_></rects>
      <tilted>0</tilted></_>
    <_>
      <rects>
        <_>
          7 19 9 3 -1.</_>
        <_>
          7 20 9 1 3.</_></rects>
      <tilted>0</tilted></_>
    <_>
      <rects>
        <_>
          9 2 11 2 -1.</_>
        <_>
          9 3 11 1 2.</_></rects>
      <tilted>0</tilted></_>
    <_>
      <rects>
        <_>
          9 8 10 16 -1.</_>
        <_>
          9 8 5 8 2.</_>
        <_>
          14 16 5 8 2.</_></rects>
      <tilted>0</tilted></_>
    <_>
      <rects>
        <_>
          9 18 7 6 -1.</_>
        <_>
          9 20 7 2 3.</_></rects>
      <tilted>0</tilted></_>
    <_>
      <rects>
        <_>
          11 0 11 16 -1.</_>
        <_>
          11 8 11 8 2.</_></rects>
      <tilted>0</tilted></_>
    <_>
      <rects>
        <_>
          14 20 10 3 -1.</_>
        <_>
          19 20 5 3 2.</_></rects>
      <tilted>0</tilted></_>
    <_>
      <rects>
        <_>
          16 8 6 16 -1.</_>
        <_>
          19 8 3 16 2.</_></rects>
      <tilted>0</tilted></_>
    <_>
      <rects>
        <_>
          20 4 3 17 -1.</_>
        <_>
          21 4 1 17 3.</_></rects>
      <tilted>0</tilted></_></features></cascade>
</opencv_storage>
