<?xml version="1.0"?>
<opencv_storage>
<cascade>
  <stageType>BOOST</stageType>
  <featureType>HAAR</featureType>
  <height>24</height>
  <width>24</width>
  <stageParams>
    <boostType>GAB</boostType>
    <minHitRate>9.9500000476837158e-01</minHitRate>
    <maxFalseAlarm>5.0000000000000000e-01</maxFalseAlarm>
    <weightTrimRate>9.4999998807907104e-01</weightTrimRate>
    <maxDepth>1</maxDepth>
    <maxWeakCount>100</maxWeakCount></stageParams>
  <featureParams>
    <maxCatCount>0</maxCatCount>
    <featSize>1</featSize>
    <mode>BASIC</mode></featureParams>
  <stageNum>17</stageNum>
  <stages>
    <!-- stage 0 -->
    <_>
      <maxWeakCount>4</maxWeakCount>
      <stageThreshold>-2.2490282058715820e+00</stageThreshold>
      <weakClassifiers>
        <_>
          <internalNodes>
            0 -1 54 1.1085557192564011e-01</internalNodes>
          <leafValues>
            -9.5870208740234375e-01 5.5555558204650879e-01</leafValues></_>
        <_>
          <internalNodes>
            0 -1 7 -4.2883761227130890e-02</internalNodes>
          <leafValues>
            4.8306974768638611e-01 -8.7836945056915283e-01</leafValues></_>
        <_>
          <internalNodes>
            0 -1 53 -3.3385533839464188e-02</internalNodes>
          <leafValues>
            4.9054923653602600e-01 -7.8216934204101563e-01</leafValues></_>
        <_>
          <internalNodes>
            0 -1 69 -9.3383761122822762e-04</internalNodes>
          <leafValues>
            3.7021276354789734e-01 -7.5472968816757202e-01</leafValues></_></weakClassifiers></_>
    <!-- stage 1 -->
    <_>
      <maxWeakCount>6</maxWeakCount>
      <stageThreshold>-2.3440542221069336e+00</stageThreshold>
      <weakClassifiers>
        <_>
          <internalNodes>
            0 -1 27 7.2359636425971985e-02</internalNodes>
          <leafValues>
            -9.6981889009475708e-01 -2.4390242993831635e-02</leafValues></_>
        <_>
          <internalNodes>
            0 -1 32 -3.1794793903827667e-02</internalNodes>
          <leafValues>
            5.6235176324844360e-01 -8.4768736362457275e-01</leafValues></_>
        <_>
          <internalNodes>
            0 -1 50 -9.9690690636634827e-02</internalNodes>
          <leafValues>
            6.0840135812759399e-01 -6.9048339128494263e-01</leafValues></_>
        <_>
          <internalNodes>
            0 -1 51 -8.0951988697052002e-02</internalNodes>
          <leafValues>
            8.4926849603652954e-01 -4.3147525191307068e-01</leafValues></_>
        <_>
          <internalNodes>
            0 -1 49 -1.1174150859005749e-04</internalNodes>
          <leafValues>
            -1. 3.5515421628952026e-01</leafValues></_>
        <_>
          <internalNodes>
            0 -1 13 -3.6595773417502642e-04</internalNodes>
          <leafValues>
            -1. 2.4025654792785645e-01</leafValues></_></weakClassifiers></_>
    <!-- stage 2 -->
    <_>
      <maxWeakCount>4</maxWeakCount>
      <stageThreshold>-1.9605381488800049e+00</stageThreshold>
      <weakClassifiers>
        <_>
          <internalNodes>
            0 -1 38 1.3717091083526611e-01</internalNodes>
          <leafValues>
            -9.4931775331497192e-01 1.</leafValues></_>
        <_>
          <internalNodes>
            0 -1 28 1.0754141211509705e-01</internalNodes>
          <leafValues>
            -8.7107580900192261e-01 5.5016541481018066e-01</leafValues></_>
        <_>
          <internalNodes>
            0 -1 10 -2.5162124633789063e-01</internalNodes>
          <leafValues>
            7.0658689737319946e-01 -5.9628391265869141e-01</leafValues></_>
        <_>
          <internalNodes>
            0 -1 49 3.1736580422148108e-04</internalNodes>
          <leafValues>
            4.5613935589790344e-01 -8.0557543039321899e-01</leafValues></_></weakClassifiers></_>
    <!-- stage 3 -->
    <_>
      <maxWeakCount>3</maxWeakCount>
      <stageThreshold>-1.7166229486465454e+00</stageThreshold>
      <weakClassifiers>
        <_>
          <internalNodes>
            0 -1 15 -1.3325306773185730e-01</internalNodes>
          <leafValues>
            6.6666668653488159e-01 -9.5112413167953491e-01</leafValues></_>
        <_>
          <internalNodes>
            0 -1 37 -2.2905616462230682e-01</internalNodes>
          <leafValues>
            3.4340611100196838e-01 -8.6629140377044678e-01</leafValues></_>
        <_>
          <internalNodes>
            0 -1 8 6.5384301706217229e-05</internalNodes>
          <leafValues>
            -8.9212822914123535e-01 1.0079265385866165e-01</leafValues></_></weakClassifiers></_>
    <!-- stage 4 -->
    <_>
      <maxWeakCount>3</maxWeakCount>
      <stageThreshold>-1.4633800983428955e+00</stageThreshold>
      <weakClassifiers>
        <_>
          <internalNodes>
            0 -1 47 1.8951979279518127e-01</internalNodes>
          <leafValues>
            -9.5112413167953491e-01 6.6666668653488159e-01</leafValues></_>
        <_>
          <internalNodes>
            0 -1 16 -1.5734200179576874e-01</internalNodes>
          <leafValues>
            4.7954946756362915e-01 -8.3616977930068970e-01</leafValues></_>
        <_>
          <internalNodes>
            0 -1 8 9.3428185209631920e-04</internalNodes>
          <leafValues>
            3.2391381263732910e-01 -9.5342010259628296e-01</leafValues></_></weakClassifiers></_>
    <!-- stage 5 -->
    <_>
      <maxWeakCount>4</maxWeakCount>
      <stageThreshold>-2.0584104061126709e+00</stageThreshold>
      <weakClassifiers>
        <_>
          <internalNodes>
            0 -1 43 1.3201782107353210e-01</internalNodes>
          <leafValues>
            -9.4931775331497192e-01 1.</leafValues></_>
        <_>
          <internalNodes>
            0 -1 26 8.7126359343528748e-02</internalNodes>
          <leafValues>
            -8.1507360935211182e-01 6.2407904863357544e-01</leafValues></_>
        <_>
          <internalNodes>
            0 -1 19 1.6161207895493135e-05</internalNodes>
          <leafValues>
            -8.3380037546157837e-01 2.1610906720161438e-01</leafValues></_>
        <_>
          <internalNodes>
            0 -1 49 1.7232741811312735e-05</internalNodes>
          <leafValues>
            -5.1012814044952393e-01 5.4559069871902466e-01</leafValues></_></weakClassifiers></_>
    <!-- stage 6 -->
    <_>
      <maxWeakCount>3</maxWeakCount>
      <stageThreshold>-2.0435574054718018e+00</stageThreshold>
      <weakClassifiers>
        <_>
          <internalNodes>
            0 -1 44 1.8322783708572388e-01</internalNodes>
          <leafValues>
            -9.4931775331497192e-01 1.</leafValues></_>
        <_>
          <internalNodes>
            0 -1 0 1.9095821699011140e-05</internalNodes>
          <leafValues>
            -9.4903421401977539e-01 -2.0753662288188934e-01</leafValues></_>
        <_>
          <internalNodes>
            0 -1 20 3.2369175460189581e-04</internalNodes>
          <leafValues>
            1.4373201131820679e-01 -8.8670313358306885e-01</leafValues></_></weakClassifiers></_>
    <!-- stage 7 -->
    <_>
      <maxWeakCount>5</maxWeakCount>
      <stageThreshold>-1.7647182941436768e+00</stageThreshold>
      <weakClassifiers>
        <_>
          <internalNodes>
            0 -1 39 1.8894192576408386e-01</internalNodes>
          <leafValues>
            -9.4731706380844116e-01 6.0000002384185791e-01</leafValues></_>
        <_>
          <internalNodes>
            0 -1 22 5.5247098207473755e-02</internalNodes>
          <leafValues>
            -7.8421479463577271e-01 3.6538311839103699e-01</leafValues></_>
        <_>
          <internalNodes>
            0 -1 18 3.6029152572154999e-02</internalNodes>
          <leafValues>
            -6.5635162591934204e-01 4.0117990970611572e-01</leafValues></_>
        <_>
          <internalNodes>
            0 -1 2 -3.0435826629400253e-02</internalNodes>
          <leafValues>
            3.6094731092453003e-01 -7.7518433332443237e-01</leafValues></_>
        <_>
          <internalNodes>
            0 -1 56 5.0819962052628398e-04</internalNodes>
          <leafValues>
            -7.8614950180053711e-01 3.4081798791885376e-01</leafValues></_></weakClassifiers></_>
    <!-- stage 8 -->
    <_>
      <maxWeakCount>5</maxWeakCount>
      <stageThreshold>-2.0169155597686768e+00</stageThreshold>
      <weakClassifiers>
        <_>
          <internalNodes>
            0 -1 4 -3.1630411744117737e-01</internalNodes>
          <leafValues>
            1. -9.3986421823501587e-01</leafValues></_>
        <_>
          <internalNodes>
            0 -1 40 1.2987130880355835e-01</internalNodes>
          <leafValues>
            -7.2635614871978760e-01 7.0294499397277832e-01</leafValues></_>
        <_>
          <internalNodes>
            0 -1 25 8.4709085058420897e-04</internalNodes>
          <leafValues>
            1.9946791231632233e-01 -8.5111993551254272e-01</leafValues></_>
        <_>
          <internalNodes>
            0 -1 65 -6.1551167163997889e-04</internalNodes>
          <leafValues>
            -1. 1.9224391877651215e-01</leafValues></_>
        <_>
          <internalNodes>
            0 -1 3 2.0292320186854340e-05</internalNodes>
          <leafValues>
            -7.3292255401611328e-01 3.0818092823028564e-01</leafValues></_></weakClassifiers></_>
    <!-- stage 9 -->
    <_>
      <maxWeakCount>4</maxWeakCount>
      <stageThreshold>-1.7912423610687256e+00</stageThreshold>
      <weakClassifiers>
        <_>
          <internalNodes>
            0 -1 41 2.4098700284957886e-01</internalNodes>
          <leafValues>
            -9.4541913270950317e-01 5.5555558204650879e-01</leafValues></_>
        <_>
          <internalNodes>
            0 -1 34 3.5320652386872098e-05</internalNodes>
          <leafValues>
            -9.4782149791717529e-01 -3.2147851586341858e-01</leafValues></_>
        <_>
          <internalNodes>
            0 -1 48 1.7232741811312735e-05</internalNodes>
          <leafValues>
            -7.3546427488327026e-01 2.4100711941719055e-01</leafValues></_>
        <_>
          <internalNodes>
            0 -1 67 -5.4468633607029915e-04</internalNodes>
          <leafValues>
            -1. 2.1111954748630524e-01</leafValues></_></weakClassifiers></_>
    <!-- stage 10 -->
    <_>
      <maxWeakCount>5</maxWeakCount>
      <stageThreshold>-2.2042839527130127e+00</stageThreshold>
      <weakClassifiers>
        <_>
          <internalNodes>
            0 -1 6 -6.0691410303115845e-01</internalNodes>
          <leafValues>
            6.6666668653488159e-01 -9.4169098138809204e-01</leafValues></_>
        <_>
          <internalNodes>
            0 -1 60 8.2397758960723877e-02</internalNodes>
          <leafValues>
            -7.7040433883666992e-01 7.7072016894817352e-02</leafValues></_>
        <_>
          <internalNodes>
            0 -1 66 4.9024744657799602e-04</internalNodes>
          <leafValues>
            1.7366331815719604e-01 -8.2825142145156860e-01</leafValues></_>
        <_>
          <internalNodes>
            0 -1 46 4.4960353989154100e-04</internalNodes>
          <leafValues>
            1.5765918791294098e-01 -1.</leafValues></_>
        <_>
          <internalNodes>
            0 -1 29 -4.2763372766785324e-04</internalNodes>
          <leafValues>
            -1. 1.7840357124805450e-01</leafValues></_></weakClassifiers></_>
    <!-- stage 11 -->
    <_>
      <maxWeakCount>4</maxWeakCount>
      <stageThreshold>-1.4261155128479004e+00</stageThreshold>
      <weakClassifiers>
        <_>
          <internalNodes>
            0 -1 33 -7.3238909244537354e-02</internalNodes>
          <leafValues>
            1. -9.3986421823501587e-01</leafValues></_>
        <_>
          <internalNodes>
            0 -1 63 2.1149162203073502e-02</internalNodes>
          <leafValues>
            -7.5133210420608521e-01 3.5762780904769897e-01</leafValues></_>
        <_>
          <internalNodes>
            0 -1 30 1.2811158085241914e-03</internalNodes>
          <leafValues>
            1.0899748653173447e-01 -9.6052706241607666e-01</leafValues></_>
        <_>
          <internalNodes>
            0 -1 35 7.3725758120417595e-03</internalNodes>
          <leafValues>
            1.7043183743953705e-01 -9.5287662744522095e-01</leafValues></_></weakClassifiers></_>
    <!-- stage 12 -->
    <_>
      <maxWeakCount>5</maxWeakCount>
      <stageThreshold>-1.8361760377883911e+00</stageThreshold>
      <weakClassifiers>
        <_>
          <internalNodes>
            0 -1 45 1.3430565595626831e-01</internalNodes>
          <leafValues>
            -9.3986421823501587e-01 1.</leafValues></_>
        <_>
          <internalNodes>
            0 -1 57 1.0980768501758575e-01</internalNodes>
          <leafValues>
            -7.5133210420608521e-01 3.5762780904769897e-01</leafValues></_>
        <_>
          <internalNodes>
            0 -1 31 1.2813890352845192e-02</internalNodes>
          <leafValues>
            -5.6924843788146973e-01 3.9419841766357422e-01</leafValues></_>
        <_>
          <internalNodes>
            0 -1 23 3.5759189631789923e-04</internalNodes>
          <leafValues>
            2.4132238328456879e-01 -9.5802026987075806e-01</leafValues></_>
        <_>
          <internalNodes>
            0 -1 55 -5.4708674724679440e-05</internalNodes>
          <leafValues>
            -7.8050053119659424e-01 2.9592129588127136e-01</leafValues></_></weakClassifiers></_>
    <!-- stage 13 -->
    <_>
      <maxWeakCount>5</maxWeakCount>
      <stageThreshold>-2.0095410346984863e+00</stageThreshold>
      <weakClassifiers>
        <_>
          <internalNodes>
            0 -1 17 -2.0031863451004028e-01</internalNodes>
          <leafValues>
            6.0000002384185791e-01 -9.3980580568313599e-01</leafValues></_>
        <_>
          <internalNodes>
            0 -1 62 7.6560201123356819e-03</internalNodes>
          <leafValues>
            -7.9110378026962280e-01 -8.1221163272857666e-02</leafValues></_>
        <_>
          <internalNodes>
            0 -1 68 -9.1799028450623155e-04</internalNodes>
          <leafValues>
            2.3369486629962921e-01 -7.5557017326354980e-01</leafValues></_>
        <_>
          <internalNodes>
            0 -1 14 1.1793859448516741e-04</internalNodes>
          <leafValues>
            -7.8168886899948120e-01 2.5211691856384277e-01</leafValues></_>
        <_>
          <internalNodes>
            0 -1 52 -3.8105121348053217e-04</internalNodes>
          <leafValues>
            -9.5261615514755249e-01 2.2482179105281830e-01</leafValues></_></weakClassifiers></_>
    <!-- stage 14 -->
    <_>
      <maxWeakCount>4</maxWeakCount>
      <stageThreshold>-1.8360639810562134e+00</stageThreshold>
      <weakClassifiers>
        <_>
          <internalNodes>
            0 -1 21 7.2289653122425079e-02</internalNodes>
          <leafValues>
            -9.4163423776626587e-01 4.2857143282890320e-01</leafValues></_>
        <_>
          <internalNodes>
            0 -1 9 1.5806270530447364e-03</internalNodes>
          <leafValues>
            -9.3762022256851196e-01 -3.5456618666648865e-01</leafValues></_>
        <_>
          <internalNodes>
            0 -1 1 3.7957556196488440e-04</internalNodes>
          <leafValues>
            -7.5655919313430786e-01 1.4735201001167297e-01</leafValues></_>
        <_>
          <internalNodes>
            0 -1 68 -9.1496482491493225e-04</internalNodes>
          <leafValues>
            2.8479450941085815e-01 -6.8721562623977661e-01</leafValues></_></weakClassifiers></_>
    <!-- stage 15 -->
    <_>
      <maxWeakCount>5</maxWeakCount>
      <stageThreshold>-2.0192582607269287e+00</stageThreshold>
      <weakClassifiers>
        <_>
          <internalNodes>
            0 -1 11 -8.5875317454338074e-02</internalNodes>
          <leafValues>
            1. -9.3798446655273438e-01</leafValues></_>
        <_>
          <internalNodes>
            0 -1 5 -6.6269382834434509e-02</internalNodes>
          <leafValues>
            1.8174748867750168e-02 -8.0238890647888184e-01</leafValues></_>
        <_>
          <internalNodes>
            0 -1 24 -3.0407623853534460e-04</internalNodes>
          <leafValues>
            -7.9266440868377686e-01 1.9891202449798584e-01</leafValues></_>
        <_>
          <internalNodes>
            0 -1 64 -7.1285618469119072e-04</internalNodes>
          <leafValues>
            -9.3922793865203857e-01 1.9212046265602112e-01</leafValues></_>
        <_>
          <internalNodes>
            0 -1 58 3.7489058740902692e-05</internalNodes>
          <leafValues>
            -4.9890461564064026e-01 4.6378436684608459e-01</leafValues></_></weakClassifiers></_>
    <!-- stage 16 -->
    <_>
      <maxWeakCount>5</maxWeakCount>
      <stageThreshold>-1.9975068569183350e+00</stageThreshold>
      <weakClassifiers>
        <_>
          <internalNodes>
            0 -1 12 -4.4506776332855225e-01</internalNodes>
          <leafValues>
            1. -9.3798446655273438e-01</leafValues></_>
        <_>
          <internalNodes>
            0 -1 61 -3.6938928067684174e-02</internalNodes>
          <leafValues>
            -7.9011023044586182e-02 -7.9769319295883179e-01</leafValues></_>
        <_>
          <internalNodes>
            0 -1 36 2.1326672867871821e-04</internalNodes>
          <leafValues>
            8.5713163018226624e-02 -8.7149053812026978e-01</leafValues></_>
        <_>
          <internalNodes>
            0 -1 59 3.5419405321590602e-05</internalNodes>
          <leafValues>
            -5.5373299121856689e-01 3.4498044848442078e-01</leafValues></_>
        <_>
          <internalNodes>
            0 -1 42 2.6524555869400501e-04</internalNodes>
          <leafValues>
            2.0619067549705505e-01 -1.</leafValues></_></weakClassifiers></_></stages>
  <features>
    <_>
      <rects>
        <_>
          0 0 2 1 -1.</_>
        <_>
          1 0 1 1 2.</_></rects>
      <tilted>0</tilted></_>
    <_>
      <rects>
        <_>
          0 0 4 1 -1.</_>
        <_>
          2 0 2 1 2.</_></rects>
      <tilted>0</tilted></_>
    <_>
      <rects>
        <_>
          0 0 14 18 -1.</_>
        <_>
          0 0 7 9 2.</_>
        <_>
          7 9 7 9 2.</_></rects>
      <tilted>0</tilted></_>
    <_>
      <rects>
        <_>
          0 4 2 2 -1.</_>
        <_>
          1 4 1 2 2.</_></rects>
      <tilted>0</tilted></_>
    <_>
      <rects>
        <_>
          0 9 22 14 -1.</_>
        <_>
          0 9 11 7 2.</_>
        <_>
          11 16 11 7 2.</_></rects>
      <tilted>0</tilted></_>
    <_>
      <rects>
        <_>
          0 12 15 6 -1.</_>
        <_>
          5 12 5 6 3.</_></rects>
      <tilted>0</tilted></_>
    <_>
      <rects>
        <_>
          0 12 24 10 -1.</_>
        <_>
          8 12 8 10 3.</_></rects>
      <tilted>0</tilted></_>
    <_>
      <rects>
        <_>
          0 13 10 6 -1.</_>
        <_>
          5 13 5 6 2.</_></rects>
      <tilted>0</tilted></_>
    <_>
      <rects>
        <_>
          0 21 2 2 -1.</_>
        <_>
          1 21 1 2 2.</_></rects>
      <tilted>0</tilted></_>
    <_>
      <rects>
        <_>
          1 0 12 1 -1.</_>
        <_>
          7 0 6 1 2.</_></rects>
      <tilted>0</tilted></_>
    <_>
      <rects>
        <_>
          1 1 20 22 -1.</_>
        <_>
          1 1 10 11 2.</_>
        <_>
          11 12 10 11 2.</_></rects>
      <tilted>0</tilted></_>
    <_>
      <rects>
        <_>
          1 7 17 4 -1.</_>
        <_>
          1 9 17 2 2.</_></rects>
      <tilted>0</tilted></_>
    <_>
      <rects>
        <_>
          1 8 22 16 -1.</_>
        <_>
          1 8 11 8 2.</_>
        <_>
          12 16 11 8 2.</_></rects>
      <tilted>0</tilted></_>
    <_>
      <rects>
        <_>
          1 18 3 6 -1.</_>
        <_>
          2 18 1 6 3.</_></rects>
      <tilted>0</tilted></_>
    <_>
      <rects>
        <_>
          2 0 22 3 -1.</_>
        <_>
          2 1 22 1 3.</_></rects>
      <tilted>0</tilted></_>
    <_>
      <rects>
        <_>
          2 8 12 13 -1.</_>
        <_>
          6 8 4 13 3.</_></rects>
      <tilted>0</tilted></_>
    <_>
      <rects>
        <_>
          2 12 22 12 -1.</_>
        <_>
          2 16 22 4 3.</_></rects>
      <tilted>0</tilted></_>
    <_>
      <rects>
        <_>
          2 17 21 3 -1.</_>
        <_>
          9 17 7 3 3.</_></rects>
      <tilted>0</tilted></_>
    <_>
      <rects>
        <_>
          2 18 10 6 -1.</_>
        <_>
          2 21 10 3 2.</_></rects>
      <tilted>0</tilted></_>
    <_>
      <rects>
        <_>
          3 0 2 1 -1.</_>
        <_>
          4 0 1 1 2.</_></rects>
      <tilted>0</tilted></_>
    <_>
      <rects>
        <_>
          3 0 6 1 -1.</_>
        <_>
          5 0 2 1 3.</_></rects>
      <tilted>0</tilted></_>
    <_>
      <rects>
        <_>
          3 0 12 6 -1.</_>
        <_>
          3 3 12 3 2.</_></rects>
      <tilted>0</tilted></_>
    <_>
      <rects>
        <_>
          3 3 2 20 -1.</_>
        <_>
          3 13 2 10 2.</_></rects>
      <tilted>0</tilted></_>
    <_>
      <rects>
        <_>
          5 4 2 2 -1.</_>
        <_>
          6 4 1 2 2.</_></rects>
      <tilted>0</tilted></_>
    <_>
      <rects>
        <_>
          5 4 3 3 -1.</_>
        <_>
          6 4 1 3 3.</_></rects>
      <tilted>0</tilted></_>
    <_>
      <rects>
        <_>
          5 5 12 2 -1.</_>
        <_>
          9 5 4 2 3.</_></rects>
      <tilted>0</tilted></_>
    <_>
      <rects>
        <_>
          5 14 5 10 -1.</_>
        <_>
          5 19 5 5 2.</_></rects>
      <tilted>0</tilted></_>
    <_>
      <rects>
        <_>
          5 16 10 8 -1.</_>
        <_>
          5 20 10 4 2.</_></rects>
      <tilted>0</tilted></_>
    <_>
      <rects>
        <_>
          5 16 14 8 -1.</_>
        <_>
          5 20 14 4 2.</_></rects>
      <tilted>0</tilted></_>
    <_>
      <rects>
        <_>
          6 0 2 4 -1.</_>
        <_>
          6 0 1 2 2.</_>
        <_>
          7 2 1 2 2.</_></rects>
      <tilted>0</tilted></_>
    <_>
      <rects>
        <_>
          6 4 12 3 -1.</_>
        <_>
          6 5 12 1 3.</_></rects>
      <tilted>0</tilted></_>
    <_>
      <rects>
        <_>
          6 12 12 10 -1.</_>
        <_>
          10 12 4 10 3.</_></rects>
      <tilted>0</tilted></_>
    <_>
      <rects>
        <_>
          6 14 6 8 -1.</_>
        <_>
          9 14 3 8 2.</_></rects>
      <tilted>0</tilted></_>
    <_>
      <rects>
        <_>
          7 21 15 2 -1.</_>
        <_>
          12 21 5 2 3.</_></rects>
      <tilted>0</tilted></_>
    <_>
      <rects>
        <_>
          8 1 2 1 -1.</_>
        <_>
          9 1 1 1 2.</_></rects>
      <tilted>0</tilted></_>
    <_>
      <rects>
        <_>
          8 2 12 4 -1.</_>
        <_>
          12 2 4 4 3.</_></rects>
      <tilted>0</tilted></_>
    <_>
      <rects>
        <_>
          8 3 6 1 -1.</_>
        <_>
          10 3 2 1 3.</_></rects>
      <tilted>0</tilted></_>
    <_>
      <rects>
        <_>
          8 3 13 21 -1.</_>
        <_>
          8 10 13 7 3.</_></rects>
      <tilted>0</tilted></_>
    <_>
      <rects>
        <_>
          8 15 16 4 -1.</_>
        <_>
          16 15 8 4 2.</_></rects>
      <tilted>0</tilted></_>
    <_>
      <rects>
        <_>
          8 15 16 5 -1.</_>
        <_>
          16 15 8 5 2.</_></rects>
      <tilted>0</tilted></_>
    <_>
      <rects>
        <_>
          8 17 11 6 -1.</_>
        <_>
          8 20 11 3 2.</_></rects>
      <tilted>0</tilted></_>
    <_>
      <rects>
        <_>
          9 0 12 22 -1.</_>
        <_>
          9 0 6 11 2.</_>
        <_>
          15 11 6 11 2.</_></rects>
      <tilted>0</tilted></_>
    <_>
      <rects>
        <_>
          9 3 2 4 -1.</_>
        <_>
          9 3 1 2 2.</_>
        <_>
          10 5 1 2 2.</_></rects>
      <tilted>0</tilted></_>
    <_>
      <rects>
        <_>
          9 14 14 5 -1.</_>
        <_>
          16 14 7 5 2.</_></rects>
      <tilted>0</tilted></_>
    <_>
      <rects>
        <_>
          9 15 14 7 -1.</_>
        <_>
          16 15 7 7 2.</_></rects>
      <tilted>0</tilted></_>
    <_>
      <rects>
        <_>
          10 0 10 16 -1.</_>
        <_>
          10 0 5 8 2.</_>
        <_>
          15 8 5 8 2.</_></rects>
      <tilted>0</tilted></_>
    <_>
      <rects>
        <_>
          10 5 2 3 -1.</_>
        <_>
          10 6 2 1 3.</_></rects>
      <tilted>0</tilted></_>
    <_>
      <rects>
        <_>
          10 13 14 7 -1.</_>
        <_>
          17 13 7 7 2.</_></rects>
      <tilted>0</tilted></_>
    <_>
      <rects>
        <_>
          11 0 2 1 -1.</_>
        <_>
          12 0 1 1 2.</_></rects>
      <tilted>0</tilted></_>
    <_>
      <rects>
        <_>
          11 0 2 2 -1.</_>
        <_>
          11 0 1 1 2.</_>
        <_>
          12 1 1 1 2.</_></rects>
      <tilted>0</tilted></_>
    <_>
      <rects>
        <_>
          11 2 7 21 -1.</_>
        <_>
          11 9 7 7 3.</_></rects>
      <tilted>0</tilted></_>
    <_>
      <rects>
        <_>
          11 4 12 18 -1.</_>
        <_>
          15 4 4 18 3.</_></rects>
      <tilted>0</tilted></_>
    <_>
      <rects>
        <_>
          13 0 3 4 -1.</_>
        <_>
          14 0 1 4 3.</_></rects>
      <tilted>0</tilted></_>
    <_>
      <rects>
        <_>
          13 6 7 12 -1.</_>
        <_>
          13 12 7 6 2.</_></rects>
      <tilted>0</tilted></_>
    <_>
      <rects>
        <_>
          13 10 10 10 -1.</_>
        <_>
          18 10 5 10 2.</_></rects>
      <tilted>0</tilted></_>
    <_>
      <rects>
        <_>
          13 23 9 1 -1.</_>
        <_>
          16 23 3 1 3.</_></rects>
      <tilted>0</tilted></_>
    <_>
      <rects>
        <_>
          15 20 9 1 -1.</_>
        <_>
          18 20 3 1 3.</_></rects>
      <tilted>0</tilted></_>
    <_>
      <rects>
        <_>
          16 1 8 18 -1.</_>
        <_>
          16 1 4 9 2.</_>
        <_>
          20 10 4 9 2.</_></rects>
      <tilted>0</tilted></_>
    <_>
      <rects>
        <_>
          16 4 1 2 -1.</_>
        <_>
          16 5 1 1 2.</_></rects>
      <tilted>0</tilted></_>
    <_>
      <rects>
        <_>
          16 6 2 2 -1.</_>
        <_>
          16 7 2 1 2.</_></rects>
      <tilted>0</tilted></_>
    <_>
      <rects>
        <_>
          16 9 8 10 -1.</_>
        <_>
          20 9 4 10 2.</_></rects>
      <tilted>0</tilted></_>
    <_>
      <rects>
        <_>
          16 14 8 10 -1.</_>
        <_>
          16 14 4 5 2.</_>
        <_>
          20 19 4 5 2.</_></rects>
      <tilted>0</tilted></_>
    <_>
      <rects>
        <_>
          18 0 6 6 -1.</_>
        <_>
          18 0 3 3 2.</_>
        <_>
          21 3 3 3 2.</_></rects>
      <tilted>0</tilted></_>
    <_>
      <rects>
        <_>
          18 3 6 6 -1.</_>
        <_>
          18 3 3 3 2.</_>
        <_>
          21 6 3 3 2.</_></rects>
      <tilted>0</tilted></_>
    <_>
      <rects>
        <_>
          19 20 3 4 -1.</_>
        <_>
          20 20 1 4 3.</_></rects>
      <tilted>0</tilted></_>
    <_>
      <rects>
        <_>
          20 19 3 5 -1.</_>
        <_>
          21 19 1 5 3.</_></rects>
      <tilted>0</tilted></_>
    <_>
      <rects>
        <_>
          20 21 3 3 -1.</_>
        <_>
          21 21 1 3 3.</_></rects>
      <tilted>0</tilted></_>
    <_>
      <rects>
        <_>
          21 20 3 2 -1.</_>
        <_>
          22 20 1 2 3.</_></rects>
      <tilted>0</tilted></_>
    <_>
      <rects>
        <_>
          22 2 2 7 -1.</_>
        <_>
          23 2 1 7 2.</_></rects>
      <tilted>0</tilted></_>
    <_>
      <rects>
        <_>
          22 6 2 5 -1.</_>
        <_>
          23 6 1 5 2.</_></rects>
      <tilted>0</tilted></_></features></cascade>
</opencv_storage>
